    0.541781797270428171E+02    0.456018061172679268E+02    0.130963651662097895E+02    0.119476415126902911E+02    0.757876415803835357E-01   -0.723853176639006392E+03
    0.511175846072934519E+02    0.478890908197204226E+02    0.620835243851634466E+01    0.198316235760330351E+02   -0.869807948729772074E+00   -0.722294621540482467E+03
    0.479126195687065888E+02    0.526049127750401340E+02    0.118939314080334295E+02    0.122148946268075882E+02   -0.859835321622174797E+00   -0.721622636373262480E+03
    0.479051813607567567E+02    0.423166430544698358E+02    0.113704523878820449E+02    0.182470580805799045E+02   -0.165989947989217956E-01   -0.721355765040027904E+03
    0.500124457856071274E+02    0.540387033179047194E+02    0.158644382698609245E+02    0.156887026566980836E+02    0.649532971515069946E-01   -0.721317399618823970E+03
    0.436078703432060024E+02    0.465535560814842881E+02    0.134716988918396599E+02    0.153896084384683931E+02   -0.553574541357458538E+00   -0.720994372115718193E+03
    0.447022226576501112E+02    0.521718285443423611E+02    0.142166278341344121E+02    0.153173100744538147E+02   -0.999388869682029668E-01   -0.720784208470084877E+03
    0.460139127272827579E+02    0.534840143799769407E+02    0.140539880119024811E+02    0.132071703022490858E+02   -0.348106598657924704E+00   -0.720417949284038173E+03
    0.559566210839153939E+02    0.432464919263276215E+02    0.185838534894566330E+02    0.195446255095176298E+02   -0.271042843393095811E+00   -0.720355163133659062E+03
    0.472523479203428849E+02    0.440204104084720882E+02    0.193634057342723089E+02    0.175870107374201936E+02   -0.121717007290296442E+00   -0.720056824586554967E+03
    0.493493187156580575E+02    0.428571841223031527E+02    0.154604759199314472E+02    0.129719054462260086E+02   -0.394799946205588337E+00   -0.719893452921862149E+03
    0.506891003443936086E+02    0.484121885406655679E+02    0.207727254370514629E+02    0.167816592519052143E+02   -0.261594404418141746E-01   -0.719832495692843167E+03
    0.458328746035656422E+02    0.513475490130763887E+02    0.107095509182695281E+02    0.209091176256540017E+02   -0.418103298416326763E+00   -0.719831169686650128E+03
    0.549952275868175491E+02    0.462015678502065441E+02    0.191381748810184718E+02    0.138873946265604022E+02   -0.639701265974714106E+00   -0.719731477222561352E+03
    0.498647296236700868E+02    0.452499456754012783E+02    0.108006160110923926E+02    0.216054506975328522E+02   -0.760674035410737748E-01   -0.719652233194172027E+03
    0.474161690847548698E+02    0.479122851353595820E+02    0.167771125603137392E+02    0.216898030885831865E+02   -0.296304177117466816E-01   -0.719342436904455553E+03
    0.467918910390117446E+02    0.501320247850942167E+02    0.183883617602815050E+02    0.136937865245805526E+02   -0.716474488933688480E+00   -0.719267975854446490E+03
    0.497895981201428697E+02    0.498606700463298296E+02    0.956140722594794390E+01    0.146036195206011072E+02   -0.923762839404089986E+00   -0.719224984167899379E+03
    0.552603888811967181E+02    0.510351611787695276E+02    0.189370405195131539E+02    0.176089120454277470E+02   -0.450856130555787660E+00   -0.719167297924778495E+03
    0.519807954727021979E+02    0.503353763399720719E+02    0.166630599833624302E+02    0.116437329473830289E+02   -0.460897613639733250E+00   -0.718977429460145345E+03
    0.446494184984183562E+02    0.530316070106446489E+02    0.183038498889601975E+02    0.168433162330688226E+02   -0.489407080378996939E+00   -0.718962180504908019E+03
    0.457987211856485033E+02    0.501374460038385337E+02    0.156476905878968822E+02    0.128771351928812230E+02   -0.243014100329500771E+00   -0.718957686685218505E+03
    0.504620929197868975E+02    0.514829148042302336E+02    0.138760410735151662E+02    0.238632627793465559E+02   -0.239385735684451428E+00   -0.718906667720628093E+03
    0.528374446492707079E+02    0.483150130516200988E+02    0.840713808064220558E+01    0.168518102795292180E+02   -0.617696222118516380E+00   -0.718799142687715403E+03
    0.520330324671655546E+02    0.428248580243961214E+02    0.141285131498120879E+02    0.136956856524465067E+02   -0.328073269350690921E+00   -0.718745165189429258E+03
    0.462343403827076429E+02    0.512004260497036512E+02    0.192100258008898415E+02    0.144745547313459664E+02   -0.391680735152506454E+00   -0.718691621504294176E+03
    0.499664969083804351E+02    0.501315156015912464E+02    0.191303225594051334E+02    0.129951455581235162E+02   -0.530912676768963254E+00   -0.718545093915181837E+03
    0.501982811288522441E+02    0.421154126820993895E+02    0.160210103092071314E+02    0.216816046692061875E+02   -0.371401078964345599E+00   -0.718530019372497691E+03
    0.477670690775671005E+02    0.443628293606360273E+02    0.155149944689308441E+02    0.141939351370650346E+02   -0.617556409034632381E+00   -0.718526321428594201E+03
    0.470484597423926800E+02    0.456045251922451769E+02    0.196619430006945919E+02    0.182990574652876425E+02   -0.264233921133254168E+00   -0.718524465660177839E+03
    0.553073534591670750E+02    0.456543785894374992E+02    0.160121536455809448E+02    0.144368183096693965E+02   -0.213557800761678296E+00   -0.718509436073727102E+03
    0.567613523334810850E+02    0.472556515121977156E+02    0.170100267386019510E+02    0.157412121254829742E+02   -0.388375422929640113E+00   -0.718474768600317134E+03
    0.494251463521058554E+02    0.512921261573558525E+02    0.207418216296654379E+02    0.189882367015441176E+02   -0.335674370166150871E+00   -0.718471187616863290E+03
    0.549524704708782679E+02    0.451474251544624394E+02    0.110410447948317181E+02    0.183720433578146256E+02   -0.415359765390798996E+00   -0.718457417300173120E+03
    0.495576926283548573E+02    0.459190494213033276E+02    0.149075414451378538E+02    0.241452961721874431E+02   -0.604242540764476033E+00   -0.718411081092331074E+03
    0.481920783710472165E+02    0.445494175093336651E+02    0.128119533607902483E+02    0.139442212721635492E+02   -0.193247943910410447E+00   -0.718352735780670969E+03
    0.518742514199217339E+02    0.442495144582856028E+02    0.130618953006894909E+02    0.192466128604981037E+02   -0.842756457189748676E+00   -0.718307118587871969E+03
    0.488953497868352258E+02    0.479557181525118779E+02    0.991085292422621933E+01    0.200671238536617551E+02   -0.769371089005753794E+00   -0.718295648716000869E+03
    0.520215049147502668E+02    0.466840303970098773E+02    0.176504519574801222E+02    0.207790823284368180E+02   -0.768886532053620897E-01   -0.718251416347438408E+03
    0.562172023529019498E+02    0.454549669531043889E+02    0.135684434410535566E+02    0.189455627866329372E+02   -0.420718746351957495E+00   -0.718245214695182085E+03
    0.544427803984141576E+02    0.476891757002861993E+02    0.103113910041482271E+02    0.158837076198587042E+02   -0.524419516496872795E+00   -0.718136332386948538E+03
    0.458539317603889742E+02    0.473252715942140583E+02    0.190471521817030975E+02    0.193422876751654904E+02   -0.530529365639861417E+00   -0.718080559184387084E+03
    0.481967931696967753E+02    0.510500682854216166E+02    0.114019060836057609E+02    0.132670010858972756E+02   -0.707520768245482712E+00   -0.718077968515794282E+03
    0.497149008059431594E+02    0.516605353978122821E+02    0.129781267126041566E+02    0.126866619166580747E+02   -0.290637014991946829E+00   -0.718073884817078806E+03
    0.500398146010601863E+02    0.485589637054475816E+02    0.884773188578067327E+01    0.199255119720183416E+02   -0.491428869588810602E+00   -0.717976446956695668E+03
    0.499093623451903454E+02    0.452312652264772339E+02    0.134570589291130105E+02    0.145281439749089998E+02   -0.342965375990261778E-01   -0.717930225284450671E+03
    0.508918390476768536E+02    0.523087330416321379E+02    0.164036750700013840E+02    0.176927036614238347E+02   -0.443863784638953707E-01   -0.717857524995519498E+03
    0.487994697592145315E+02    0.476216324542331506E+02    0.117109602894483071E+02    0.222287649536433634E+02   -0.250185804704010639E+00   -0.717832131110383102E+03
    0.506214366484266236E+02    0.542204591858030653E+02    0.154183063562255906E+02    0.167510972777086167E+02   -0.258598644086987295E+00   -0.717798228539355478E+03
    0.545690365252261813E+02    0.476891618751178612E+02    0.112876395139975898E+02    0.186138550307915658E+02   -0.617929263864190004E+00   -0.717797010366809104E+03
    0.503616736139047134E+02    0.527602523214600296E+02    0.105480021549651983E+02    0.164351797158858268E+02   -0.645459643215901768E+00   -0.717784439475179965E+03
    0.476825936504910430E+02    0.493876557684745023E+02    0.134939501058810372E+02    0.169105037879106384E+02   -0.870874652518656145E+00   -0.717776595075205364E+03
    0.503628352829713037E+02    0.455723610089211491E+02    0.143683700595079600E+02    0.164409632016348510E+02    0.473416106323554242E-01   -0.717756400634089800E+03
    0.490677999662572120E+02    0.529188958915306387E+02    0.125392310079560119E+02    0.216908191049368462E+02   -0.334490024442105294E+00   -0.717754786158935531E+03
    0.515445733495604088E+02    0.436141343213012647E+02    0.117706899728117627E+02    0.179440927172531666E+02   -0.155222015377008193E+00   -0.717741914411197740E+03
    0.497305884902926607E+02    0.419065665629650255E+02    0.143405836320454743E+02    0.175073555837624966E+02   -0.500965157814041828E+00   -0.717729620293912831E+03
    0.529415331145616790E+02    0.415114807858203960E+02    0.149628457369272763E+02    0.180573967366539847E+02   -0.485605035250374240E+00   -0.717724004988870547E+03
    0.534976907679238707E+02    0.465460053218365033E+02    0.116517617322745277E+02    0.215205171233425041E+02   -0.426884862726392145E+00   -0.717722886709008208E+03
    0.517588471862783024E+02    0.480714483128602410E+02    0.104189388635557876E+02    0.178209173433294978E+02   -0.834625601419543006E-01   -0.717714308616343715E+03
    0.508002373502285707E+02    0.530041039912630367E+02    0.129451780324909134E+02    0.174275997815536599E+02   -0.733052002967679028E+00   -0.717690970957443255E+03
    0.495195556024264931E+02    0.497251456278013961E+02    0.116163089515395246E+02    0.210490938410900306E+02   -0.134905102199362803E+00   -0.717626644399740940E+03
    0.553513290126291793E+02    0.501848492386141629E+02    0.146141222659206171E+02    0.183380788975522293E+02   -0.498952327851863053E+00   -0.717625325590768171E+03
    0.456147654226679720E+02    0.461685407892383637E+02    0.147518118486851559E+02    0.153286607863240238E+02   -0.277756862438172991E+00   -0.717599708875669307E+03
    0.480774839287283839E+02    0.428082903905579997E+02    0.137499351970114247E+02    0.175588225396960773E+02   -0.354791732981188268E+00   -0.717599218244907206E+03
    0.515923416098695782E+02    0.490725336179491762E+02    0.942655055888545057E+01    0.143123449764491557E+02   -0.499055594856212537E+00   -0.717585018975002868E+03
    0.498295806632133065E+02    0.535385887210146336E+02    0.131220052743732332E+02    0.183529894897372650E+02   -0.164522601359877174E+00   -0.717542705071153136E+03
    0.489298972665426106E+02    0.541620039913439655E+02    0.128254743266914222E+02    0.163234347402117379E+02   -0.572144471496737306E+00   -0.717527489234161294E+03
    0.522493854110284985E+02    0.504952516775716163E+02    0.126872440874045935E+02    0.176362887489827536E+02   -0.805115355355883522E+00   -0.717522381683453204E+03
    0.476508791589801319E+02    0.522098072744682611E+02    0.185166125571563285E+02    0.170177280537243334E+02   -0.271737916036417726E+00   -0.717508386048452508E+03
    0.490152334454455172E+02    0.427189554302487693E+02    0.151827920749983303E+02    0.187906748057466721E+02   -0.247121895167368266E+00   -0.717458716741980083E+03
    0.528465743942780364E+02    0.510783154596426527E+02    0.132378214178695526E+02    0.195957100616370816E+02   -0.694966025721128977E+00   -0.717458483920990943E+03
    0.494406685531604069E+02    0.483068394379967856E+02    0.957987114559492348E+01    0.140318742117244319E+02   -0.422367397374802112E+00   -0.717448898958184714E+03
    0.510103121512413509E+02    0.538726353565962768E+02    0.158547637359428517E+02    0.195700025896937646E+02   -0.303669786038400669E+00   -0.717448090119290214E+03
    0.505778802826014271E+02    0.542716497783779062E+02    0.157469874412727595E+02    0.178422742453485625E+02   -0.332726521236163086E+00   -0.717413329944524662E+03
    0.483806852165322994E+02    0.501161692787195250E+02    0.922198286533816258E+01    0.164655844656442518E+02   -0.552517333974670288E+00   -0.717402041899694495E+03
    0.511298865128603950E+02    0.452792589519059163E+02    0.193208941082543184E+02    0.207803879891317216E+02   -0.475847382847074063E+00   -0.717386145880905929E+03
    0.508873898153911171E+02    0.434332997215846603E+02    0.146141961574078785E+02    0.184459808863537944E+02   -0.745136340077492187E+00   -0.717383733516349253E+03
    0.550496655849681247E+02    0.463902804512991906E+02    0.124487525426887817E+02    0.184127385838818256E+02   -0.328425882749963760E+00   -0.717352630418473382E+03
    0.461993541692649217E+02    0.526341169386312515E+02    0.132157218938722458E+02    0.170981378065723355E+02   -0.316889409976389036E+00   -0.717344178460000194E+03
    0.514140540298167252E+02    0.499959257838030737E+02    0.160802110739431008E+02    0.224437097650370987E+02   -0.250750209434392635E+00   -0.717331204595555391E+03
    0.478404068997608647E+02    0.483906807301750632E+02    0.165313701129387631E+02    0.220532477116861152E+02   -0.258646648960233927E+00   -0.717327933427489711E+03
    0.507731465875319827E+02    0.476713768879246800E+02    0.141891622944041700E+02    0.233455772622522382E+02   -0.308700916629748301E+00   -0.717292963281631955E+03
    0.528111833908749020E+02    0.466705249143414846E+02    0.149037664860343586E+02    0.194295936991167970E+02   -0.436578418016495551E-01   -0.717261673589549900E+03
    0.476568587727037425E+02    0.476019828151740398E+02    0.131904619128247411E+02    0.220110789241752585E+02   -0.599698678366146432E+00   -0.717258770906436325E+03
    0.531293011111536089E+02    0.461933670383120045E+02    0.185152155526450493E+02    0.208548013789650000E+02   -0.589517681513026304E+00   -0.717072231885954693E+03
    0.496663134169790510E+02    0.470243679965751085E+02    0.106291224537847206E+02    0.189759080178396857E+02   -0.769305693075600039E+00   -0.717062119562498992E+03
    0.540149919704127797E+02    0.456877110769367505E+02    0.112810413222834729E+02    0.170440081076947294E+02   -0.635664200084041897E+00   -0.717029695673466904E+03
    0.503459777874579117E+02    0.465335446471549687E+02    0.106384489725156204E+02    0.137699163464318541E+02   -0.666947751737319905E+00   -0.717028404042569946E+03
    0.486158719259502163E+02    0.522752052038719626E+02    0.140910281045619925E+02    0.173505974753513748E+02   -0.778604142748283046E+00   -0.716993382429829580E+03
    0.526545650117502646E+02    0.487597413214044479E+02    0.976028510080648104E+01    0.170771816679527504E+02   -0.442179870128934560E+00   -0.716979801998309995E+03
    0.526624666476770358E+02    0.511555116396736764E+02    0.141719019566962423E+02    0.143314151069118108E+02   -0.228456295285303868E+00   -0.716976503254523777E+03
    0.528094968635131750E+02    0.441924397585297584E+02    0.141271520383455389E+02    0.152266332102467299E+02   -0.223350648325721823E+00   -0.716943646667165467E+03
    0.518617939485908721E+02    0.499788101736062345E+02    0.108099286327832704E+02    0.205223289615633462E+02   -0.480493369311871033E+00   -0.716941542213430125E+03
    0.518617939485908721E+02    0.499788101736062345E+02    0.108099286327832704E+02    0.205223289615633462E+02   -0.480493369311871033E+00   -0.716941542213430125E+03
    0.492715841023706105E+02    0.512886952792905788E+02    0.116860211360690300E+02    0.165241813143908161E+02   -0.134140078650563099E+00   -0.716929570758962200E+03
    0.497596497408684399E+02    0.490815332357003626E+02    0.180687638959263417E+02    0.143983010459382204E+02   -0.179200834650067531E+00   -0.716906973479019598E+03
    0.512646757936173287E+02    0.492538057810324119E+02    0.184928496754924581E+02    0.159991614705101082E+02   -0.694347374092614822E+00   -0.716807643235736577E+03
    0.507414082925771481E+02    0.516358547603649072E+02    0.102991996340651486E+02    0.174775003494576175E+02   -0.564909065494536566E+00   -0.716781820396770854E+03
    0.532619037137692715E+02    0.455002876826790725E+02    0.175496431925836873E+02    0.173820331475636785E+02   -0.707669388189275939E+00   -0.716770157794975944E+03
    0.490273663795819914E+02    0.486959826228706447E+02    0.122465052833270533E+02    0.128753282151073254E+02   -0.315313874758430202E+00   -0.716755768699910050E+03
    0.508389425285550374E+02    0.499303779290125931E+02    0.184496243758475735E+02    0.158611844315989448E+02   -0.175123672222531002E+00   -0.716744176623028579E+03
    0.481079341933947831E+02    0.512595443590463731E+02    0.193012482795702525E+02    0.173523852020360998E+02   -0.499863564095298640E+00   -0.716743075861725629E+03
    0.507447169558641633E+02    0.466000815865235438E+02    0.132076643183622071E+02    0.123970599347288459E+02   -0.411615705673259002E+00   -0.716740351487829457E+03
    0.486775485701367643E+02    0.443528927828400867E+02    0.160643652814005407E+02    0.201163880054409141E+02   -0.285178780479480865E+00   -0.716706817043614706E+03
    0.494348141244288115E+02    0.503723749383754864E+02    0.979763098955873346E+01    0.180696144261388483E+02   -0.386174477400546001E+00   -0.716694057701667816E+03
    0.525391883894259877E+02    0.493799928486334920E+02    0.171577527418597349E+02    0.212863794335032388E+02   -0.595832559191184941E+00   -0.716670516084976384E+03
    0.509282845921218836E+02    0.449846343009415364E+02    0.147656706119415659E+02    0.195881891740803162E+02   -0.109020150077900002E+00   -0.716655118684876243E+03
    0.503936176025705720E+02    0.502383577470353657E+02    0.989552019575463682E+01    0.189737275220297903E+02   -0.538973114095877559E+00   -0.716640480619592950E+03
    0.503936176025705720E+02    0.502383577470353657E+02    0.989552019575463682E+01    0.189737275220297903E+02   -0.538973114095877559E+00   -0.716640480619592950E+03
    0.508840861318716122E+02    0.501399717639841072E+02    0.135088029060087642E+02    0.151402664134028520E+02   -0.797765423297934539E+00   -0.716636552856364233E+03
    0.476238457182381296E+02    0.503280748855638365E+02    0.153066465253517165E+02    0.214393136589652329E+02   -0.293282654473060123E+00   -0.716626375313677727E+03
    0.476238457182381296E+02    0.503280748855638365E+02    0.153066465253517165E+02    0.214393136589652329E+02   -0.293282654473060123E+00   -0.716626375313677727E+03
    0.530316506328049400E+02    0.433960641958072983E+02    0.159949719756900013E+02    0.168427734441962400E+02   -0.321241894456826715E+00   -0.716625335348315843E+03
    0.522457755992991508E+02    0.478560914836403128E+02    0.129690356662404334E+02    0.126837684281846563E+02   -0.560403047560180112E+00   -0.716608257848053313E+03
    0.464790434027468109E+02    0.460183156126138613E+02    0.131437470548696531E+02    0.175427785231969935E+02   -0.507342224960527499E+00   -0.716604724888991313E+03
    0.464790434027468109E+02    0.460183156126138613E+02    0.131437470548696531E+02    0.175427785231969935E+02   -0.507342224960527499E+00   -0.716604724888991313E+03
    0.510243075008273763E+02    0.437779411435016641E+02    0.162275901617905127E+02    0.210464181118206071E+02   -0.432967571021137920E+00   -0.716604186608591817E+03
    0.475473498365335274E+02    0.526084366467684106E+02    0.132256766841269062E+02    0.185281447911312114E+02   -0.678267981360139993E+00   -0.716597453618349846E+03
    0.546558169979506658E+02    0.469812160956246885E+02    0.169229512957422870E+02    0.154853379629792549E+02   -0.315362319207348474E+00   -0.716571026353436423E+03
    0.460156933947687889E+02    0.525525633843000151E+02    0.148967751324328734E+02    0.186403401309961438E+02   -0.502789009854169189E+00   -0.716568213476931305E+03
    0.532722680565620124E+02    0.470231768833981789E+02    0.185537929327427271E+02    0.192608063626397730E+02   -0.327474078834300020E+00   -0.716564841826325392E+03
    0.492177735234329816E+02    0.456456495131120619E+02    0.124037481415549919E+02    0.202767868564707605E+02   -0.665708082798723622E+00   -0.716560809181637637E+03
    0.489794496304182871E+02    0.523361155040972790E+02    0.114792830976580102E+02    0.155357755791146257E+02   -0.518545879056107939E+00   -0.716545648667124738E+03
    0.527034795219476848E+02    0.472743289064495400E+02    0.135057788087625017E+02    0.209808989955881842E+02   -0.219761343432417933E+00   -0.716543831965193021E+03
    0.485989342353556140E+02    0.508657772712751637E+02    0.140210021431288752E+02    0.202379342484935592E+02   -0.742481946307196106E+00   -0.716514765109227710E+03
    0.464488311638348819E+02    0.511041410067922186E+02    0.140335162455861084E+02    0.161482129036666784E+02   -0.253745634851012314E+00   -0.716504986921069190E+03
    0.498461758171629867E+02    0.486924053134267183E+02    0.952964843934422667E+01    0.155934409654213315E+02   -0.469968685451442436E+00   -0.716504735242086781E+03
    0.524728537322896500E+02    0.447173617074929552E+02    0.155600515763944891E+02    0.197083610286231661E+02   -0.204562100199458752E+00   -0.716502276783412754E+03
    0.524728537322896500E+02    0.447173617074929552E+02    0.155600515763944891E+02    0.197083610286231661E+02   -0.204562100199458752E+00   -0.716502276783412754E+03
    0.515776232769263174E+02    0.492245748344971901E+02    0.192316771110027744E+02    0.163444093342014547E+02   -0.292006904999596695E+00   -0.716469198683651484E+03
    0.480204991577360545E+02    0.509898573482032020E+02    0.128699386796554034E+02    0.182609536475827703E+02   -0.764190812134293851E+00   -0.716457798856942304E+03
    0.502367294434083647E+02    0.527658179134495526E+02    0.132584907446954716E+02    0.188990714364939940E+02   -0.645261205559005901E+00   -0.716426921952102475E+03
    0.502367294434083647E+02    0.527658179134495526E+02    0.132584907446954716E+02    0.188990714364939940E+02   -0.645261205559005901E+00   -0.716426921952102475E+03
    0.502124698604475270E+02    0.510313681265499497E+02    0.103405697399755105E+02    0.184015840092066476E+02   -0.395240982474920899E+00   -0.716410500480624023E+03
    0.513094134245670830E+02    0.433392572165344632E+02    0.168722338710390645E+02    0.172467866903819633E+02   -0.521362543812186052E+00   -0.716383730758659453E+03
    0.475901314072047512E+02    0.463746887710833846E+02    0.174164186010192061E+02    0.151284938090188064E+02   -0.500129807867457643E+00   -0.716382026315895928E+03
    0.537518519495105238E+02    0.494270285031434753E+02    0.118303378600808724E+02    0.171348849137086461E+02   -0.349892214154919556E+00   -0.716375678113112031E+03
    0.537518519495105238E+02    0.494270285031434753E+02    0.118303378600808724E+02    0.171348849137086461E+02   -0.349892214154919556E+00   -0.716375678113112031E+03
    0.509218402140823230E+02    0.453123964956216128E+02    0.122496044813984870E+02    0.184962624006141461E+02   -0.755091674108393507E+00   -0.716375359480110660E+03
    0.490235618442397936E+02    0.453594851691526344E+02    0.142478856425105285E+02    0.169272108816386897E+02   -0.943635214755806917E-01   -0.716340760814477562E+03
    0.473613227274952351E+02    0.525154883554178582E+02    0.133404336096457232E+02    0.157238909562648814E+02   -0.475834180736783297E+00   -0.716258272293476921E+03
    0.500415769814944440E+02    0.489276089047988023E+02    0.188407997032363674E+02    0.199863656906045541E+02   -0.357057983382633393E+00   -0.716237324843182478E+03
    0.504439065930897357E+02    0.462273486695803513E+02    0.190566679901571625E+02    0.178208715523561629E+02   -0.597387609407561082E+00   -0.716236883270092221E+03
    0.504439065930897357E+02    0.462273486695803513E+02    0.190566679901571625E+02    0.178208715523561629E+02   -0.597387609407561082E+00   -0.716236883270092221E+03
    0.488209663525985036E+02    0.482983720078291299E+02    0.164815848943683037E+02    0.221610636633726372E+02   -0.478486663936450562E+00   -0.716236670915975083E+03
    0.488209663525985036E+02    0.482983720078291299E+02    0.164815848943683037E+02    0.221610636633726372E+02   -0.478486663936450562E+00   -0.716236670915975083E+03
    0.464621101886644965E+02    0.506143188715655299E+02    0.167240266924210168E+02    0.187378004705252437E+02   -0.632765246670937143E+00   -0.716230179445802605E+03
    0.469698294862145360E+02    0.485954884499091406E+02    0.173613648759950507E+02    0.202891388960627665E+02   -0.447097808105217043E+00   -0.716215405651433230E+03
    0.536408006051036921E+02    0.449481948883127416E+02    0.142095149351776318E+02    0.146733191222302146E+02   -0.437209904366400837E+00   -0.716215212950466253E+03
    0.536408006051036921E+02    0.449481948883127416E+02    0.142095149351776318E+02    0.146733191222302146E+02   -0.437209904366400837E+00   -0.716215212950466253E+03
    0.491849650783152867E+02    0.507980610834306674E+02    0.162670255657437934E+02    0.171478484443523982E+02   -0.111266125224186885E+00   -0.716213936711024985E+03
    0.491849650783152867E+02    0.507980610834306674E+02    0.162670255657437934E+02    0.171478484443523982E+02   -0.111266125224186885E+00   -0.716213936711024985E+03
    0.463213855872345448E+02    0.483950804191307782E+02    0.170938640160878741E+02    0.153631490009817977E+02   -0.384738444549780345E+00   -0.716212723612890500E+03
    0.463213855872345448E+02    0.483950804191307782E+02    0.170938640160878741E+02    0.153631490009817977E+02   -0.384738444549780345E+00   -0.716212723612890500E+03
    0.481626420117779901E+02    0.481888516137262570E+02    0.124508196282960988E+02    0.133486379436090381E+02   -0.513681986655168288E+00   -0.716200859757091735E+03
    0.513462575843599893E+02    0.499839236056177754E+02    0.105151867285295175E+02    0.158607597040052433E+02   -0.348017682477300361E+00   -0.716195836026138181E+03
    0.513462575843599893E+02    0.499839236056177754E+02    0.105151867285295175E+02    0.158607597040052433E+02   -0.348017682477300361E+00   -0.716195836026138181E+03
    0.508669994473576139E+02    0.457470975424311632E+02    0.109824476981605610E+02    0.153138866478464699E+02   -0.658958376756815900E+00   -0.716188484876805205E+03
    0.489206595437635769E+02    0.495180068464711667E+02    0.147469426986508800E+02    0.174667520247058619E+02   -0.804099177430427803E+00   -0.716186611472770892E+03
    0.526562518361010916E+02    0.496771175204490021E+02    0.115135290820727771E+02    0.154369386019055579E+02   -0.323452653644974775E+00   -0.716176416797602542E+03
    0.482522521201427139E+02    0.453680868077606192E+02    0.133155343695199377E+02    0.202235859106690441E+02   -0.344385660214223677E+00   -0.716166998460207651E+03
    0.516100515177263333E+02    0.456947809719218867E+02    0.133356147841235799E+02    0.137817745799330336E+02   -0.639510399093014659E+00   -0.716145087075426659E+03
    0.496663375008845946E+02    0.477995010806636458E+02    0.137316419142948885E+02    0.191032497622594910E+02   -0.629487906750038073E-01   -0.716143377750167929E+03
    0.509582551512100963E+02    0.503052556456837578E+02    0.131627049713734614E+02    0.202732285710662197E+02   -0.699755372192963909E+00   -0.716140975769512806E+03
    0.509582551512100963E+02    0.503052556456837578E+02    0.131627049713734614E+02    0.202732285710662197E+02   -0.699755372192963909E+00   -0.716140975769512806E+03
    0.523710780254734232E+02    0.448948664112985796E+02    0.162056490941320028E+02    0.193365139279803060E+02   -0.686780264328115120E+00   -0.716131265243437156E+03
    0.469732136680569283E+02    0.480366168866670478E+02    0.184520613255084456E+02    0.174275555904537889E+02   -0.431800236864424591E+00   -0.716105230032228974E+03
    0.500085626156093213E+02    0.435882312743590887E+02    0.161548516709188519E+02    0.168077034376007326E+02   -0.382975786440521548E+00   -0.716097699469283270E+03
    0.487592987652888326E+02    0.525618891682603078E+02    0.155028078070979252E+02    0.155078505732677634E+02   -0.555364432245440076E+00   -0.716071738951172506E+03
    0.487592987652888326E+02    0.525618891682603078E+02    0.155028078070979252E+02    0.155078505732677634E+02   -0.555364432245440076E+00   -0.716071738951172506E+03
    0.519809859960007827E+02    0.485306544387260601E+02    0.149811800979168481E+02    0.131352980176828176E+02   -0.321424339227732392E+00   -0.716058187877021396E+03
    0.519809859960007827E+02    0.485306544387260601E+02    0.149811800979168481E+02    0.131352980176828176E+02   -0.321424339227732392E+00   -0.716058187877021396E+03
    0.496512826527438449E+02    0.519755604968986518E+02    0.139489721221770040E+02    0.142749801770703169E+02   -0.484693335966474459E+00   -0.716056954540237939E+03
    0.496512826527438449E+02    0.519755604968986518E+02    0.139489721221770040E+02    0.142749801770703169E+02   -0.484693335966474459E+00   -0.716056954540237939E+03
    0.496305633836661286E+02    0.472013164409900980E+02    0.105060613068079896E+02    0.147268541366625652E+02   -0.530148637322071403E+00   -0.716055881069097040E+03
    0.496305633836661286E+02    0.472013164409900980E+02    0.105060613068079896E+02    0.147268541366625652E+02   -0.530148637322071403E+00   -0.716055881069097040E+03
    0.497825030181217585E+02    0.471786467685159039E+02    0.110025575082615212E+02    0.141862995390356037E+02   -0.407180291037261610E+00   -0.716045721593843609E+03
    0.503685334920003243E+02    0.474370895421960199E+02    0.123552112693697236E+02    0.136064446995422070E+02   -0.682512960785534251E+00   -0.716033630345250231E+03
    0.503685334920003243E+02    0.474370895421960199E+02    0.123552112693697236E+02    0.136064446995422070E+02   -0.682512960785534251E+00   -0.716033630345250231E+03
    0.514469195389495155E+02    0.518273186691739056E+02    0.149293344652443114E+02    0.166141278993351378E+02   -0.193512001479131501E+00   -0.716020232166811979E+03
    0.507748904124024989E+02    0.488269630327424409E+02    0.129371372775325266E+02    0.159079037078455343E+02   -0.751154067569193007E-01   -0.716005075447582044E+03
    0.505010681603762350E+02    0.455836280582508095E+02    0.165590503287405433E+02    0.204246377721655605E+02   -0.269479474220089554E+00   -0.716001766596166249E+03
    0.527228529246683024E+02    0.481965502819114135E+02    0.146741299544141537E+02    0.166965711922748135E+02   -0.929450511224114706E-01   -0.715993134063907519E+03
    0.527228529246683024E+02    0.481965502819114135E+02    0.146741299544141537E+02    0.166965711922748135E+02   -0.929450511224114706E-01   -0.715993134063907519E+03
    0.481702100166374692E+02    0.459698816491466289E+02    0.123005782478341832E+02    0.184112085612593575E+02   -0.252037218779527894E+00   -0.715991306298553127E+03
    0.518575257179359710E+02    0.479070883847861637E+02    0.170587198366749782E+02    0.197675069819128950E+02   -0.205418195569702089E+00   -0.715977829169025085E+03
    0.518904842566934121E+02    0.467735389031605280E+02    0.164077065689615615E+02    0.146760905870508118E+02   -0.200092514154727952E+00   -0.715961347598843986E+03
    0.521851542011826837E+02    0.440296518293009740E+02    0.164563867015961272E+02    0.173562275746950263E+02   -0.609095488643500493E+00   -0.715950354796735610E+03
    0.539337470727924142E+02    0.481351377618558161E+02    0.165029093154449527E+02    0.147997055865855227E+02   -0.439930010202133959E+00   -0.715936329690017487E+03
    0.513328088555179534E+02    0.478275089982020631E+02    0.126063438690606979E+02    0.150697921749729229E+02   -0.140627280354851836E+00   -0.715913082353646587E+03
    0.489602588988834952E+02    0.497160480729893948E+02    0.157116854172430038E+02    0.185811869781627443E+02   -0.758790303718458459E+00   -0.715893579147887522E+03
    0.489602588988834952E+02    0.497160480729893948E+02    0.157116854172430038E+02    0.185811869781627443E+02   -0.758790303718458459E+00   -0.715893579147887522E+03
    0.496541242684201620E+02    0.454847294584907047E+02    0.123100145415393332E+02    0.145515945416352999E+02   -0.366195230440778730E+00   -0.715865942131043766E+03
    0.496541242684201620E+02    0.454847294584907047E+02    0.123100145415393332E+02    0.145515945416352999E+02   -0.366195230440778730E+00   -0.715865942131043766E+03
    0.490236677104067269E+02    0.479132743280421209E+02    0.105515152360547546E+02    0.157057811230011630E+02   -0.370266559764320657E+00   -0.715848712818321701E+03
    0.490236677104067269E+02    0.479132743280421209E+02    0.105515152360547546E+02    0.157057811230011630E+02   -0.370266559764320657E+00   -0.715848712818321701E+03
    0.495732084997863467E+02    0.497482293626969465E+02    0.134268863554710141E+02    0.131764586251498841E+02   -0.385626929849600342E+00   -0.715842129332527065E+03
    0.545032981510167645E+02    0.460619129494544381E+02    0.159625171207539296E+02    0.188989237820815958E+02   -0.438899614962153573E+00   -0.715842109471589538E+03
    0.545032981510167645E+02    0.460619129494544381E+02    0.159625171207539296E+02    0.188989237820815958E+02   -0.438899614962153573E+00   -0.715842109471589538E+03
    0.481944499376203339E+02    0.479237686774504823E+02    0.183736293906699863E+02    0.156498427394559272E+02   -0.507394027348800791E+00   -0.715840933197396907E+03
    0.481944499376203339E+02    0.479237686774504823E+02    0.183736293906699863E+02    0.156498427394559272E+02   -0.507394027348800791E+00   -0.715840933197396907E+03
    0.482955798456845287E+02    0.481273942268356620E+02    0.113140600501498199E+02    0.174427877682256245E+02   -0.255617836320761183E+00   -0.715821567766325870E+03
    0.482955798456845287E+02    0.481273942268356620E+02    0.113140600501498199E+02    0.174427877682256245E+02   -0.255617836320761183E+00   -0.715821567766325870E+03
    0.523233785333841865E+02    0.509005809469561825E+02    0.166912020458915116E+02    0.175536400878000833E+02   -0.585695670987061101E+00   -0.715816921158794003E+03
    0.483088891802619287E+02    0.466451146218618078E+02    0.110165896009911926E+02    0.173055129472075393E+02   -0.452510690763714973E+00   -0.715801544555639680E+03
    0.516007648381751380E+02    0.474921888315432170E+02    0.165944376130072264E+02    0.156211135676060362E+02   -0.716792522998160653E+00   -0.715800032381658866E+03
    0.491971144331465950E+02    0.490835483129180830E+02    0.158312872661468571E+02    0.208420142017734626E+02   -0.244109639216023466E+00   -0.715790972716216629E+03
    0.491971144331465950E+02    0.490835483129180830E+02    0.158312872661468571E+02    0.208420142017734626E+02   -0.244109639216023466E+00   -0.715790972716216629E+03
    0.516492764096948349E+02    0.455595515010669203E+02    0.109950527248312628E+02    0.181622645723368770E+02   -0.410936685913598221E+00   -0.715770908548767466E+03
    0.474595560997761936E+02    0.471876624239932028E+02    0.177096740222888975E+02    0.186786360910912350E+02   -0.402102301625890779E+00   -0.715763404560864387E+03
    0.471578027321218940E+02    0.475633979658977921E+02    0.130614991121949355E+02    0.195561457780642343E+02   -0.398297085233499937E+00   -0.715748884779001628E+03
    0.505130782311513542E+02    0.453352342285287762E+02    0.124897835189693627E+02    0.166921941293407343E+02   -0.195038726665506923E+00   -0.715729438282884303E+03
    0.505130782311513542E+02    0.453352342285287762E+02    0.124897835189693627E+02    0.166921941293407343E+02   -0.195038726665506923E+00   -0.715729438282884303E+03
    0.491472946772124430E+02    0.514110853368262894E+02    0.172576684307275805E+02    0.154666320731040177E+02   -0.477021938120936517E+00   -0.715729105310931686E+03
    0.480918988309980762E+02    0.455788203485683425E+02    0.163517999309915112E+02    0.155930348769815819E+02   -0.414168433150261195E+00   -0.715721038389517275E+03
    0.527436195869941287E+02    0.451176901657471490E+02    0.164360657303856961E+02    0.167681343038295729E+02   -0.646184605244515153E+00   -0.715708449021504862E+03
    0.527436195869941287E+02    0.451176901657471490E+02    0.164360657303856961E+02    0.167681343038295729E+02   -0.646184605244515153E+00   -0.715708449021504862E+03
    0.499492549242045811E+02    0.496602209429734387E+02    0.125915957732813020E+02    0.178372293338876986E+02   -0.769573251381331924E+00   -0.715702352392745865E+03
    0.494289301056615784E+02    0.473913820589199020E+02    0.165088316700959936E+02    0.191152001479999072E+02   -0.160013988481428004E+00   -0.715694511507381890E+03
    0.494980613926082924E+02    0.488037655600820699E+02    0.105025870004873116E+02    0.169874868008622109E+02   -0.654976942240952043E+00   -0.715691349083329101E+03
    0.494980613926082924E+02    0.488037655600820699E+02    0.105025870004873116E+02    0.169874868008622109E+02   -0.654976942240952043E+00   -0.715691349083329101E+03
    0.479592452703248853E+02    0.474252457049939551E+02    0.179770448602740807E+02    0.162326873596636894E+02   -0.334371606757283724E+00   -0.715690720389311423E+03
    0.485881205836597019E+02    0.511777128902164122E+02    0.164067586162543932E+02    0.206282472501716079E+02   -0.454100150752788534E+00   -0.715666058751486958E+03
    0.485881205836597019E+02    0.511777128902164122E+02    0.164067586162543932E+02    0.206282472501716079E+02   -0.454100150752788534E+00   -0.715666058751486958E+03
    0.525932195665418476E+02    0.513719057082498409E+02    0.155538638845087949E+02    0.165242627092579504E+02   -0.342163882327292446E+00   -0.715665265686594580E+03
    0.494470468087875474E+02    0.484442669653316784E+02    0.108394524279863731E+02    0.190710879579364132E+02   -0.369172711635054385E+00   -0.715644764155197549E+03
    0.524928927235676213E+02    0.454835111182842695E+02    0.139697507771644176E+02    0.205507624363132031E+02   -0.376337102129884915E+00   -0.715639123443435210E+03
    0.510485729480872124E+02    0.451273228082069124E+02    0.150608327473597559E+02    0.209263896776858296E+02   -0.377575137637245484E+00   -0.715638326818429732E+03
    0.510485729480872124E+02    0.451273228082069124E+02    0.150608327473597559E+02    0.209263896776858296E+02   -0.377575137637245484E+00   -0.715638326818429732E+03
    0.514042373205716103E+02    0.455547442710920052E+02    0.121394884856114977E+02    0.146629203038987974E+02   -0.415170262084152086E+00   -0.715616424561854501E+03
    0.495369199525840145E+02    0.468394847018909104E+02    0.140415666306581493E+02    0.216297178173748854E+02   -0.483022230031092792E+00   -0.715605520295981705E+03
    0.471423450204432584E+02    0.466099936487144646E+02    0.140043032669832286E+02    0.167994918143144893E+02   -0.269295510567644780E+00   -0.715605243638168076E+03
    0.497005133327452882E+02    0.497058624477077160E+02    0.154964719086264999E+02    0.175088458470980797E+02   -0.101615852611050106E+00   -0.715589041791431100E+03
    0.495711011244323174E+02    0.509532246736651757E+02    0.167545823855217328E+02    0.204099852502142305E+02   -0.557925763729138380E+00   -0.715568216622206251E+03
    0.509278985267725659E+02    0.474842658231792427E+02    0.108601844794065769E+02    0.157511976146589276E+02   -0.319184192094298269E+00   -0.715568149579065448E+03
    0.506877853141692469E+02    0.476534646484498694E+02    0.162704294751033345E+02    0.145494895535724176E+02   -0.204673077630844191E+00   -0.715555708449587428E+03
    0.506877853141692469E+02    0.476534646484498694E+02    0.162704294751033345E+02    0.145494895535724176E+02   -0.204673077630844191E+00   -0.715555708449587428E+03
    0.508385240887976977E+02    0.516788713470513699E+02    0.130106470166899886E+02    0.195866870150509449E+02   -0.362605439386785244E+00   -0.715550670093779900E+03
    0.496278924151972376E+02    0.443515533394435693E+02    0.127138542716123446E+02    0.184658722885867554E+02   -0.448703557975246636E+00   -0.715543462003862828E+03
    0.496278924151972376E+02    0.443515533394435693E+02    0.127138542716123446E+02    0.184658722885867554E+02   -0.448703557975246636E+00   -0.715543462003862828E+03
    0.474863108272732291E+02    0.457920430332569879E+02    0.147595124435723211E+02    0.178479070760648035E+02   -0.530036576940862036E+00   -0.715543145888304821E+03
    0.504505344588945661E+02    0.466308623578468371E+02    0.143904437034366328E+02    0.158293011005682107E+02   -0.751391115700837831E+00   -0.715539132202130986E+03
    0.476391576219894830E+02    0.478783673505693343E+02    0.137013372895938659E+02    0.198105750209999023E+02   -0.296320903522899748E+00   -0.715536043978111707E+03
    0.513200701651920497E+02    0.468687219841999649E+02    0.169363783250627442E+02    0.168604470071659698E+02   -0.169041223916873373E+00   -0.715532812057905403E+03
    0.529017089762973285E+02    0.478628518346539806E+02    0.149602247052847126E+02    0.205913104650243426E+02   -0.573762901557931526E+00   -0.715510684053309888E+03
    0.536166896065022911E+02    0.467145341747434770E+02    0.139175241843901976E+02    0.162702179968638774E+02   -0.263067462013513609E+00   -0.715501545028275132E+03
    0.539640413880819096E+02    0.455875331224344222E+02    0.162585035035463221E+02    0.167818759710267535E+02   -0.410311483754333461E+00   -0.715498615093843000E+03
    0.529990411872320522E+02    0.451861716190472293E+02    0.137205885042413964E+02    0.198483429804449472E+02   -0.460868323038886363E+00   -0.715495190880236578E+03
    0.529990411872320522E+02    0.451861716190472293E+02    0.137205885042413964E+02    0.198483429804449472E+02   -0.460868323038886363E+00   -0.715495190880236578E+03
    0.495877713394008026E+02    0.518701651509558701E+02    0.119356508059653414E+02    0.165518016300178203E+02   -0.487561369008790324E+00   -0.715488259810987415E+03
    0.495877713394008026E+02    0.518701651509558701E+02    0.119356508059653414E+02    0.165518016300178203E+02   -0.487561369008790324E+00   -0.715488259810987415E+03
    0.506255053601860538E+02    0.454964374923491164E+02    0.172834329988856865E+02    0.154512023576696862E+02   -0.477024898282762511E+00   -0.715470160801225575E+03
    0.510872377523909336E+02    0.499452788466824984E+02    0.172339672669626331E+02    0.151800981271175583E+02   -0.558097033840615042E+00   -0.715464231410996717E+03
    0.510872377523909336E+02    0.499452788466824984E+02    0.172339672669626331E+02    0.151800981271175583E+02   -0.558097033840615042E+00   -0.715464231410996717E+03
    0.501636217004812295E+02    0.463983153388712140E+02    0.165296852851041329E+02    0.166333626033995543E+02   -0.167610496106112117E+00   -0.715458751376019336E+03
    0.543603979891096571E+02    0.474323358932269343E+02    0.149057688804371313E+02    0.185646635672659031E+02   -0.478196017223018410E+00   -0.715458631563783456E+03
    0.484951540808448840E+02    0.506492728866304276E+02    0.160986510887846883E+02    0.192031883856010275E+02   -0.256948468935424557E+00   -0.715455343874372147E+03
    0.483136336798567925E+02    0.489673566009302874E+02    0.175251401207495547E+02    0.200324941444282771E+02   -0.468242455029362348E+00   -0.715434978375449759E+03
    0.483136336798567925E+02    0.489673566009302874E+02    0.175251401207495547E+02    0.200324941444282771E+02   -0.468242455029362348E+00   -0.715434978375449759E+03
    0.520751879578658645E+02    0.501844715144181919E+02    0.151874024186183991E+02    0.175684922023360137E+02   -0.671483015510260461E+00   -0.715433221193754093E+03
    0.524554238625826486E+02    0.492887183453905777E+02    0.118844056469698227E+02    0.179999197921031744E+02   -0.592840896725179478E+00   -0.715428107400476165E+03
    0.524554238625826486E+02    0.492887183453905777E+02    0.118844056469698227E+02    0.179999197921031744E+02   -0.592840896725179478E+00   -0.715428107400476165E+03
    0.525528739751314333E+02    0.464238738760548983E+02    0.130631083365837721E+02    0.185065734054673712E+02   -0.689148883935915224E+00   -0.715423252073157755E+03
    0.523421490107957936E+02    0.473963579851460111E+02    0.169632958574321080E+02    0.190154908533403244E+02   -0.260584798022956088E+00   -0.715418582876983351E+03
    0.515107631667274291E+02    0.481789857092069269E+02    0.181711808956677245E+02    0.193186597260899440E+02   -0.390093346604993063E+00   -0.715411553808818894E+03
    0.513830823719736998E+02    0.448722781158436419E+02    0.131381602711574281E+02    0.150351744869830561E+02   -0.526840123679165107E+00   -0.715404655152670898E+03
    0.477558622327166518E+02    0.500079803511132752E+02    0.168184655498104796E+02    0.151967937566762874E+02   -0.381238304898505298E+00   -0.715404443353248553E+03
    0.505116441183320717E+02    0.471056231950034316E+02    0.129175827263625269E+02    0.138859785905196436E+02   -0.318445698499726038E+00   -0.715396762636601693E+03
    0.478848674940621777E+02    0.495913768953133456E+02    0.137060987477627467E+02    0.204315050763389969E+02   -0.386598995396683742E+00   -0.715394128105709001E+03
    0.478848674940621777E+02    0.495913768953133456E+02    0.137060987477627467E+02    0.204315050763389969E+02   -0.386598995396683742E+00   -0.715394128105709001E+03
    0.471848006805214766E+02    0.498255968668692617E+02    0.167631097752008138E+02    0.188936870771858025E+02   -0.570625684322953464E+00   -0.715392057343650208E+03
    0.471848006805214766E+02    0.498255968668692617E+02    0.167631097752008138E+02    0.188936870771858025E+02   -0.570625684322953464E+00   -0.715392057343650208E+03
    0.526235025478233638E+02    0.459158192618568251E+02    0.156607236462283606E+02    0.147081685680674994E+02   -0.371366910860822075E+00   -0.715388645993360001E+03
    0.526235025478233638E+02    0.459158192618568251E+02    0.156607236462283606E+02    0.147081685680674994E+02   -0.371366910860822075E+00   -0.715388645993360001E+03
    0.514776796531940306E+02    0.471080900556945608E+02    0.117473136492850827E+02    0.145457224013521866E+02   -0.391674027924709955E+00   -0.715384536822300561E+03
    0.514776796531940306E+02    0.471080900556945608E+02    0.117473136492850827E+02    0.145457224013521866E+02   -0.391674027924709955E+00   -0.715384536822300561E+03
    0.521890289183233449E+02    0.454254320290111480E+02    0.116793307715673294E+02    0.180620353064644092E+02   -0.475292049756209756E+00   -0.715380880640667897E+03
    0.517613218853757360E+02    0.473065948265249574E+02    0.108876503295796354E+02    0.179553466685697458E+02   -0.423606406743132102E+00   -0.715357110747259640E+03
    0.494837905431732281E+02    0.480880630493646777E+02    0.130907846318344294E+02    0.203160029145394212E+02   -0.259802010731277067E+00   -0.715343803966914379E+03
    0.494837905431732281E+02    0.480880630493646777E+02    0.130907846318344294E+02    0.203160029145394212E+02   -0.259802010731277067E+00   -0.715343803966914379E+03
    0.508594938198056923E+02    0.520811091163328115E+02    0.138627088587661635E+02    0.189551574265733258E+02   -0.380482229986408571E+00   -0.715335662382180658E+03
    0.483992076372940687E+02    0.460171578131436831E+02    0.125447505912978876E+02    0.164407237368325454E+02   -0.317203863662587238E+00   -0.715334854876371310E+03
    0.498842850251268146E+02    0.461195012053390201E+02    0.160862327694017502E+02    0.146510447126867991E+02   -0.561347658827943352E+00   -0.715328960111250694E+03
    0.498842850251268146E+02    0.461195012053390201E+02    0.160862327694017502E+02    0.146510447126867991E+02   -0.561347658827943352E+00   -0.715328960111250694E+03
    0.507785447421173615E+02    0.517504108188277314E+02    0.153766044932943124E+02    0.197321120374496779E+02   -0.480040992050299375E+00   -0.715324643482060537E+03
    0.525983081584984404E+02    0.475390510711793866E+02    0.146490862695844033E+02    0.162303902062581642E+02   -0.711134167628852953E+00   -0.715323311387121066E+03
    0.518258727693898891E+02    0.513538091496764082E+02    0.151605008650373545E+02    0.183955513613142578E+02   -0.559938913137814853E+00   -0.715320111345546138E+03
    0.526467537329843935E+02    0.485541600923797034E+02    0.137713990005513018E+02    0.205021367317202845E+02   -0.454620982480849145E+00   -0.715314918675198328E+03
    0.526467537329843935E+02    0.485541600923797034E+02    0.137713990005513018E+02    0.205021367317202845E+02   -0.454620982480849145E+00   -0.715314918675198328E+03
    0.483951406324570144E+02    0.468400411206148419E+02    0.117529554815225801E+02    0.180431696984833891E+02   -0.542790711313224983E+00   -0.715312017029511821E+03
    0.465448389847717010E+02    0.491686839169200027E+02    0.139401026229968625E+02    0.165630160243472346E+02   -0.550411699057332005E+00   -0.715298097446675001E+03
    0.498725958870623174E+02    0.501020941207852673E+02    0.133906683227411847E+02    0.138000390490255676E+02   -0.432673722720833820E+00   -0.715294415192707902E+03
    0.498725958870623174E+02    0.501020941207852673E+02    0.133906683227411847E+02    0.138000390490255676E+02   -0.432673722720833820E+00   -0.715294415192707902E+03
    0.499231306219716373E+02    0.516540174431218020E+02    0.162697478513617533E+02    0.193301108742940286E+02   -0.376491562026085469E+00   -0.715293389940294333E+03
    0.467929673585261980E+02    0.497789918111133716E+02    0.146003331830020375E+02    0.155586606849663944E+02   -0.391424681873349778E+00   -0.715260769868788771E+03
    0.485942084780611481E+02    0.459785348217895375E+02    0.158162170004707860E+02    0.166743556984889842E+02   -0.607258486794356900E+00   -0.715260075597976652E+03
    0.485942084780611481E+02    0.459785348217895375E+02    0.158162170004707860E+02    0.166743556984889842E+02   -0.607258486794356900E+00   -0.715260075597976652E+03
    0.490684047629447946E+02    0.506025281380485410E+02    0.115219582417054891E+02    0.159032095327513670E+02   -0.447723766786830568E+00   -0.715246266266295834E+03
    0.492803930311761178E+02    0.478105589796498691E+02    0.169208912804784859E+02    0.164312121151563311E+02   -0.670717941536188245E+00   -0.715238934876831877E+03
    0.510425574422718284E+02    0.474265276948448786E+02    0.126253556785667662E+02    0.137492447392748431E+02   -0.481449036870181590E+00   -0.715238003400729554E+03
    0.478766466775249171E+02    0.495194390559903468E+02    0.147968645800829943E+02    0.206010483072038610E+02   -0.494333343262932434E+00   -0.715237991268847168E+03
    0.514416986231568387E+02    0.484128515814328466E+02    0.108696036266738112E+02    0.179743450663539690E+02   -0.429897368695464910E+00   -0.715237090661626553E+03
    0.492963062502023490E+02    0.519796122618671461E+02    0.156861842891404528E+02    0.188416348756932663E+02   -0.570143853650213583E+00   -0.715235806594148698E+03
    0.529283271689771198E+02    0.466611013415208618E+02    0.122339866621824207E+02    0.161585486895028190E+02   -0.370044964354479422E+00   -0.715235699531422483E+03
    0.529221435071777080E+02    0.488346129681933405E+02    0.151100635973414690E+02    0.152431160627425104E+02   -0.281983410926426203E+00   -0.715196150388182446E+03
    0.529221435071777080E+02    0.488346129681933405E+02    0.151100635973414690E+02    0.152431160627425104E+02   -0.281983410926426203E+00   -0.715196150388182446E+03
    0.495578634590524985E+02    0.487996797805681126E+02    0.156358560433449565E+02    0.176407302433467876E+02   -0.734572510580205451E+00   -0.715195051954234259E+03
    0.534729432422471689E+02    0.450602952268795889E+02    0.145983044663674892E+02    0.184238091627510343E+02   -0.458207894005883243E+00   -0.715183977222079079E+03
    0.529594067788950440E+02    0.489122717567998109E+02    0.160655614710456547E+02    0.196889023234010487E+02   -0.441023936239595127E+00   -0.715175378126383521E+03
    0.516517901065378453E+02    0.448707963698243475E+02    0.134158228015767467E+02    0.154767225172474152E+02   -0.542736157934801899E+00   -0.715174297505730010E+03
    0.474552429589146527E+02    0.463943522572493805E+02    0.145678406209311717E+02    0.173213324328484397E+02   -0.320044412741894213E+00   -0.715172535525536318E+03
    0.514230416093511167E+02    0.465982955055838204E+02    0.114963652048690452E+02    0.190764017535371515E+02   -0.485214362241955244E+00   -0.715171866230349451E+03
    0.524534005223276836E+02    0.507824110329289624E+02    0.130859210505036678E+02    0.169866003779677186E+02   -0.421350455840864946E+00   -0.715169875701329602E+03
    0.528927370223192952E+02    0.482895523309422856E+02    0.121870066285029193E+02    0.178958028452121098E+02   -0.372600046189537348E+00   -0.715127428617861369E+03
    0.500954817973806144E+02    0.464152423776938292E+02    0.126437224911095996E+02    0.143284964895199849E+02   -0.429807157270722273E+00   -0.715123884123860307E+03
    0.500954817973806144E+02    0.464152423776938292E+02    0.126437224911095996E+02    0.143284964895199849E+02   -0.429807157270722273E+00   -0.715123884123860307E+03
    0.486146134843080802E+02    0.483282126661669338E+02    0.116540328764473315E+02    0.184844165435939765E+02   -0.357625002141104820E+00   -0.715123881924811030E+03
    0.522093886837816967E+02    0.488088334155734174E+02    0.143247180932492508E+02    0.177389862314698377E+02   -0.170405118997534077E+00   -0.715119700962642128E+03
    0.486054014820409463E+02    0.488819156718975876E+02    0.127969100331354788E+02    0.194341912814562008E+02   -0.632566123487356080E+00   -0.715115451045464056E+03
    0.486054014820409463E+02    0.488819156718975876E+02    0.127969100331354788E+02    0.194341912814562008E+02   -0.632566123487356080E+00   -0.715115451045464056E+03
    0.498511582846579984E+02    0.489602656007952532E+02    0.140964525940120282E+02    0.210244140327565496E+02   -0.577604506986918564E+00   -0.715108325246424101E+03
    0.498511582846579984E+02    0.489602656007952532E+02    0.140964525940120282E+02    0.210244140327565496E+02   -0.577604506986918564E+00   -0.715108325246424101E+03
    0.526441499089957006E+02    0.482692466550591064E+02    0.140551287673131284E+02    0.184946246681869262E+02   -0.220771209446050887E+00   -0.715104306124517166E+03
    0.526441499089957006E+02    0.482692466550591064E+02    0.140551287673131284E+02    0.184946246681869262E+02   -0.220771209446050887E+00   -0.715104306124517166E+03
    0.504333588660729788E+02    0.480175668990969768E+02    0.110650095750730504E+02    0.188683496098107533E+02   -0.467228608666164336E+00   -0.715101063429661735E+03
    0.494183140839196824E+02    0.495286945064012514E+02    0.153705679623251950E+02    0.168449791502088466E+02   -0.152837226002578985E+00   -0.715085834908759921E+03
    0.513444259807662888E+02    0.504777628351152146E+02    0.142688443041007726E+02    0.151604097164165328E+02   -0.285887064322566942E+00   -0.715080847531798213E+03
    0.528113838715328257E+02    0.447587131165663834E+02    0.156070107293613081E+02    0.171103982177135840E+02   -0.413761031856980321E+00   -0.715075566346843743E+03
    0.483555770039430968E+02    0.500965524314479183E+02    0.138118967032447131E+02    0.181680672991697634E+02   -0.224153416922668214E+00   -0.715074459327072304E+03
    0.484646746965981094E+02    0.482649595041876296E+02    0.145801249519066385E+02    0.146121341016118382E+02   -0.621364054986246694E+00   -0.715059659072487534E+03
    0.522361853525234210E+02    0.456600555882498043E+02    0.157665673542219018E+02    0.155786535493427003E+02   -0.334757893325928646E+00   -0.715052270654136123E+03
    0.481953385794952851E+02    0.511487315570213639E+02    0.156716440661584642E+02    0.155308189688637341E+02   -0.438633244184695292E+00   -0.715047003733065594E+03
    0.484146320253960312E+02    0.489045843618276308E+02    0.177055972129675574E+02    0.185517578555313314E+02   -0.539614733135708291E+00   -0.715044212935631549E+03
    0.484146320253960312E+02    0.489045843618276308E+02    0.177055972129675574E+02    0.185517578555313314E+02   -0.539614733135708291E+00   -0.715044212935631549E+03
    0.503771253939417818E+02    0.470520629606495504E+02    0.131988377761997171E+02    0.189292099669198564E+02   -0.199101517276001450E+00   -0.715037789919106217E+03
    0.492595865552992791E+02    0.474520233838574370E+02    0.126566515993227942E+02    0.194790866333892012E+02   -0.622601362419770266E+00   -0.715032960878764470E+03
    0.524367928146049280E+02    0.453830618861502444E+02    0.151017096289071713E+02    0.185754344802699762E+02   -0.307651984038342818E+00   -0.715031358233966330E+03
    0.508632324512850005E+02    0.488976545960293265E+02    0.115937955689576579E+02    0.176484584145821088E+02   -0.658144596423672734E+00   -0.715025616527968396E+03
    0.512578623363715735E+02    0.458638055354120979E+02    0.115790370489710845E+02    0.163152530134088494E+02   -0.464480598228316444E+00   -0.715019204843505122E+03
    0.503599482435404866E+02    0.482921508581292187E+02    0.183992507939016079E+02    0.180521494953419150E+02   -0.495799072125025164E+00   -0.715015059069489666E+03
    0.511601875626322737E+02    0.499558422102489033E+02    0.138347079939170872E+02    0.190491088117668532E+02   -0.226265901807649827E+00   -0.715013045645236389E+03
    0.513001562635607229E+02    0.482912247482557007E+02    0.176749732238866564E+02    0.161130560025843224E+02   -0.318073645846644326E+00   -0.715011373391815710E+03
    0.513001562635607229E+02    0.482912247482557007E+02    0.176749732238866564E+02    0.161130560025843224E+02   -0.318073645846644326E+00   -0.715011373391815710E+03
    0.482278434556340301E+02    0.483148112057589572E+02    0.153310381693635875E+02    0.176576263837380552E+02   -0.194077579125351396E+00   -0.715006608322146803E+03
    0.506394877423018670E+02    0.483019099308677369E+02    0.118478691885266763E+02    0.198452878656092331E+02   -0.449601535204223524E+00   -0.715004654666366150E+03
    0.534066545990860106E+02    0.491060155212551592E+02    0.160389277338167986E+02    0.174254806510921938E+02   -0.375331065848874434E+00   -0.715003491147630712E+03
    0.532618959800682887E+02    0.450832059645416905E+02    0.146647187041364209E+02    0.167498824893438218E+02   -0.493148392229695420E+00   -0.715002990391760818E+03
    0.496066031569444590E+02    0.452834984889548195E+02    0.124010567136216299E+02    0.179508832657304289E+02   -0.410195719377176027E+00   -0.715001541885111124E+03
    0.520265603656469864E+02    0.470710660090693125E+02    0.153456010691191569E+02    0.168190290030768494E+02   -0.699367990425467601E+00   -0.714997845122699573E+03
    0.495523578427068401E+02    0.485707633995890262E+02    0.156973896106549251E+02    0.138756704342519370E+02   -0.430716330795385849E+00   -0.714987012651604573E+03
    0.530206745288006971E+02    0.474509011716407372E+02    0.154921432780463029E+02    0.148333379435109318E+02   -0.474710411094670270E+00   -0.714981160581008453E+03
    0.518407846631720872E+02    0.478815056448197822E+02    0.125986066710008675E+02    0.173589500122621061E+02   -0.692604844503485806E+00   -0.714974305842293120E+03
    0.509079979281706585E+02    0.493812654587360100E+02    0.115103983422905944E+02    0.187723004246832659E+02   -0.524770003442177724E+00   -0.714972575394294154E+03
    0.500888530760945230E+02    0.488169575514176870E+02    0.145929852345017661E+02    0.171617372267169372E+02   -0.132227920780476405E+00   -0.714970339006052086E+03
    0.505266412009907810E+02    0.481269489857026542E+02    0.127453577063694876E+02    0.203125973612233430E+02   -0.355807208301027078E+00   -0.714961089832964603E+03
    0.490729277599297973E+02    0.511372188722500596E+02    0.160362401413887881E+02    0.196686926375609197E+02   -0.469403576624435659E+00   -0.714960541756853331E+03
    0.488027526572898580E+02    0.463110550413210547E+02    0.119795892315088572E+02    0.170799679206286967E+02   -0.474254001841027506E+00   -0.714954960007996647E+03
    0.486936703930451245E+02    0.503871461454811538E+02    0.155518747691438364E+02    0.187174876889347921E+02   -0.652029585894422281E+00   -0.714942180297873392E+03
    0.489682815205647728E+02    0.453831636122145312E+02    0.159746707173567142E+02    0.173950476779182850E+02   -0.361821747047126885E+00   -0.714940642514031765E+03
    0.518478478666695537E+02    0.451225570931987647E+02    0.164336875562043296E+02    0.177500728484419987E+02   -0.557395340142815332E+00   -0.714934585313006664E+03
    0.484043399179215612E+02    0.518973646858118514E+02    0.139385591142571137E+02    0.167728622492108137E+02   -0.483536751420688637E+00   -0.714932101969006226E+03
    0.489409329995995961E+02    0.507786029569562061E+02    0.124375142204086320E+02    0.185327842136951126E+02   -0.373164305992273571E+00   -0.714928062587660634E+03
    0.499983119879965159E+02    0.466010792202478399E+02    0.153479129328701447E+02    0.149144926420806581E+02   -0.272214943394019304E+00   -0.714923900124492775E+03
    0.481276928284508756E+02    0.478894396029547238E+02    0.126526264161775792E+02    0.166075599508627612E+02   -0.621411742717642435E+00   -0.714922236363769684E+03
    0.486664978697516233E+02    0.464776681973062864E+02    0.124995197236499447E+02    0.167162707458167112E+02   -0.330049838333735690E+00   -0.714908461459336309E+03
    0.490146780144922047E+02    0.508074284560548790E+02    0.151376701885170881E+02    0.178857831914717984E+02   -0.661777592419243610E+00   -0.714907760484498567E+03
    0.494850959823028234E+02    0.499995925874061129E+02    0.122124240160160138E+02    0.155435428350803093E+02   -0.614777658271179694E+00   -0.714900608334926346E+03
    0.507435934989281350E+02    0.493474215992654308E+02    0.126376925416479970E+02    0.197498254590035600E+02   -0.584997994533081211E+00   -0.714894070157967917E+03
    0.493143606695126380E+02    0.460871269257457641E+02    0.155322316126390287E+02    0.170824030137505147E+02   -0.233797451398022660E+00   -0.714882575706333228E+03
    0.496040231596112164E+02    0.475257598132352825E+02    0.142815961653444887E+02    0.138349535982977461E+02   -0.472072281816018569E+00   -0.714880526161782086E+03
    0.497313125863871903E+02    0.509909274850265035E+02    0.131447105403041409E+02    0.152497555244517624E+02   -0.408898774152399280E+00   -0.714878473377996443E+03
    0.482002365461080728E+02    0.473773490554241050E+02    0.148348960031134691E+02    0.187120709404239136E+02   -0.620196440838134189E+00   -0.714876822825390491E+03
    0.495948507383314166E+02    0.465436479523374942E+02    0.167163901895219347E+02    0.158980114616208343E+02   -0.308883196939895188E+00   -0.714872012279766636E+03
    0.488835257507924155E+02    0.472593641894457903E+02    0.155641415100662837E+02    0.156307656721458681E+02   -0.630989563072094528E+00   -0.714869625395601588E+03
    0.498994196689507703E+02    0.494059584201195605E+02    0.114411481648263234E+02    0.155687548762649879E+02   -0.522934350149227622E+00   -0.714865748443652365E+03
    0.487109117797081126E+02    0.476843075847396847E+02    0.138512069222920946E+02    0.149728486690631275E+02   -0.277294854420922721E+00   -0.714859812484451027E+03
    0.519305564357621563E+02    0.503112743212203668E+02    0.149654274279645492E+02    0.172761711619320195E+02   -0.604140308536983639E+00   -0.714847158857178897E+03
    0.509386022775296112E+02    0.486234053371290145E+02    0.114064074057037939E+02    0.161057321425744284E+02   -0.595746124770847985E+00   -0.714846713970569681E+03
    0.486181567571102562E+02    0.484811241648222619E+02    0.127495563678602473E+02    0.170158831984492913E+02   -0.238662365179096114E+00   -0.714839208140791584E+03
    0.510783248483308796E+02    0.499952339464375370E+02    0.131694840652892147E+02    0.191317311922305251E+02   -0.292603008107358953E+00   -0.714832038946980219E+03
    0.490030206050403478E+02    0.481165988817823802E+02    0.178106215586488794E+02    0.165811103419536892E+02   -0.413777645469443289E+00   -0.714820528756262206E+03
    0.478642420963725499E+02    0.467041221552371439E+02    0.144001533956400660E+02    0.187788791274864195E+02   -0.431488014623157889E+00   -0.714808375261143055E+03
    0.507375063054005579E+02    0.450942525147213189E+02    0.131132758030762080E+02    0.173045428064261877E+02   -0.329326897684531161E+00   -0.714807635539959165E+03
    0.490696285230540639E+02    0.481357004938347188E+02    0.129150751803458519E+02    0.198540264295382762E+02   -0.363960782160201224E+00   -0.714805891840771778E+03
    0.522726128750364012E+02    0.466996907319865500E+02    0.152846774169614026E+02    0.201278939657563427E+02   -0.499427301593958983E+00   -0.714799786111436333E+03
    0.497297114701497662E+02    0.450282775601221488E+02    0.140226393102347888E+02    0.183698806129871528E+02   -0.530363336145805109E+00   -0.714795336297886593E+03
    0.506413717484821291E+02    0.478723580926202601E+02    0.164198068810548250E+02    0.192102834445762376E+02   -0.643452427897593937E+00   -0.714788263444768631E+03
    0.484796778257145604E+02    0.495171204886102885E+02    0.143965682608200876E+02    0.202044118248313467E+02   -0.524822358627520913E+00   -0.714787198287676802E+03
    0.504750117861427441E+02    0.450665973392616479E+02    0.128876288060404534E+02    0.173267028666644833E+02   -0.549037370880958608E+00   -0.714786340471099720E+03
    0.512500040711472025E+02    0.472838836570221304E+02    0.139152918934344747E+02    0.168266333976271305E+02   -0.177020204367097755E+00   -0.714773145455571694E+03
    0.492156105327424598E+02    0.480962514006201616E+02    0.118541056006243366E+02    0.173027303556137575E+02   -0.632389672609976916E+00   -0.714770093470075381E+03
    0.506210247573676781E+02    0.503290486861668569E+02    0.155351627664408909E+02    0.154080957682296020E+02   -0.303996214093912420E+00   -0.714768092608837605E+03
    0.491262948847991368E+02    0.491317257605939801E+02    0.161321077069919987E+02    0.200026657665242098E+02   -0.563579814503124998E+00   -0.714740096317599978E+03
    0.518617381270453848E+02    0.466406873754966114E+02    0.117614513447053035E+02    0.169471161482704495E+02   -0.433271117888123780E+00   -0.714739341353350142E+03
    0.532562966791703900E+02    0.474650219449821691E+02    0.137492599039689836E+02    0.168297505938156071E+02   -0.338944157576181571E+00   -0.714735222171590976E+03
    0.486363812429719076E+02    0.506262862524801847E+02    0.137498194083630967E+02    0.176881978951910526E+02   -0.285038828403784139E+00   -0.714714003089357789E+03
    0.498917383458477843E+02    0.458627328184952319E+02    0.121066488575338767E+02    0.178193377941140874E+02   -0.471562356121602355E+00   -0.714713129827015791E+03
    0.520758986496107070E+02    0.470182361335635619E+02    0.127162111288000972E+02    0.192686021549780477E+02   -0.440893396236025303E+00   -0.714690351479112337E+03
    0.503533915324310897E+02    0.508816026681153062E+02    0.141081699901301878E+02    0.155824172876194691E+02   -0.340466318995173212E+00   -0.714687832989278263E+03
    0.508131907431075831E+02    0.515955175978285183E+02    0.145858955437146225E+02    0.177369556864557758E+02   -0.411909045214700620E+00   -0.714680772669737053E+03
    0.505242613907427653E+02    0.509224408819896723E+02    0.142897491346629479E+02    0.169062670029957651E+02   -0.271875522661200963E+00   -0.714677596674425558E+03
    0.496487800268743342E+02    0.491593574473336048E+02    0.158241600116185719E+02    0.184805778721436482E+02   -0.665820945027380429E+00   -0.714652006263819089E+03
    0.526989749688211759E+02    0.486862586272138174E+02    0.129650005806916724E+02    0.175590078852506046E+02   -0.363037967876971290E+00   -0.714639296045177389E+03
    0.492842115301822332E+02    0.468486356783208180E+02    0.139660908105011980E+02    0.198910260061472606E+02   -0.383398346048995919E+00   -0.714636359947159235E+03
    0.519746249780168625E+02    0.481861369551009204E+02    0.134958909686551944E+02    0.198128618394214477E+02   -0.428341345068250501E+00   -0.714606636847082314E+03
    0.506521847322016470E+02    0.497915845140937847E+02    0.172507447847199593E+02    0.174391706646329290E+02   -0.530082920945839753E+00   -0.714599150112157986E+03
    0.490835691750635306E+02    0.506908444545971690E+02    0.163885142013332583E+02    0.178878562173787934E+02   -0.560239210562748058E+00   -0.714593869592051988E+03
    0.512671887453568615E+02    0.459673756606182167E+02    0.136346019725133552E+02    0.177878290061608020E+02   -0.270227627909020329E+00   -0.714586748775938531E+03
    0.508996548995208684E+02    0.495427471565861310E+02    0.125529406790160039E+02    0.191157847556965841E+02   -0.537520171447132711E+00   -0.714572975278890681E+03
    0.520922871226254074E+02    0.494223198179228973E+02    0.140713715467967440E+02    0.162065065813261064E+02   -0.284585111431316928E+00   -0.714568283399943653E+03
    0.490996139997047578E+02    0.477328865873551820E+02    0.126303946544433980E+02    0.176619215460682639E+02   -0.476244679341017108E+00   -0.714072778397436537E+03
    0.504799065517269412E+02    0.458934029215538715E+02    0.141757161143622614E+02    0.164626783467301578E+02   -0.467430433782808796E+00   -0.714021562363927046E+03
    0.493877905864389959E+02    0.489823748411770907E+02    0.161360752315697837E+02    0.178931616426112718E+02   -0.594537379279990175E+00   -0.714178682199034711E+03
    0.512557251413257120E+02    0.489718190327374430E+02    0.160228230151685658E+02    0.168916339836286724E+02   -0.459982151653629434E+00   -0.713868021247019442E+03
    0.490914738176992671E+02    0.489348724729393041E+02    0.152272817186184106E+02    0.144863998724484571E+02   -0.405365961140587205E+00   -0.714565259657175488E+03
    0.502651919185558995E+02    0.474520653166089801E+02    0.131376339815442869E+02    0.192413090716443094E+02   -0.362723089079571848E+00   -0.714275664186730978E+03
    0.492091113884041249E+02    0.497028206656893872E+02    0.132374486235304296E+02    0.178586832392477604E+02   -0.462546187330411418E+00   -0.713910188750204725E+03
    0.492091113884041249E+02    0.497028206656893872E+02    0.132374486235304296E+02    0.178586832392477604E+02   -0.462546187330411418E+00   -0.713910188750204725E+03
    0.509745775992871017E+02    0.487853075238004976E+02    0.124525715530770960E+02    0.152971131752696632E+02   -0.452884627483877367E+00   -0.714341847080589559E+03
    0.495795216634552105E+02    0.471900078051324385E+02    0.148849903309015978E+02    0.163662570185543679E+02   -0.252494885258046753E+00   -0.714309385605815919E+03
    0.498214947808874342E+02    0.469803209862716642E+02    0.118344801995841742E+02    0.165078508108519841E+02   -0.530583960190575965E+00   -0.714500455740906773E+03
    0.512293003909436493E+02    0.487252722487864958E+02    0.166390966063404839E+02    0.164545027312808649E+02   -0.474555410034437464E+00   -0.714128892626710012E+03
    0.513528494084504530E+02    0.497782252334141901E+02    0.166947177282189969E+02    0.182293147997466676E+02   -0.438849270742791675E+00   -0.714446137037241101E+03
    0.476449642600325660E+02    0.495753150034708483E+02    0.134605732406323710E+02    0.168972248968102008E+02   -0.396614343719481566E+00   -0.714514791796911140E+03
    0.522155463454645599E+02    0.480975014044763896E+02    0.131446466918704523E+02    0.166424174115927102E+02   -0.357001319417290519E+00   -0.714246479947191347E+03
    0.517297178704070859E+02    0.487923028106096126E+02    0.145948207217897767E+02    0.168119360770589594E+02   -0.583189129839140175E+00   -0.714030549429743132E+03
    0.488801750806872803E+02    0.493095515444192642E+02    0.159312392822582058E+02    0.188060151161635396E+02   -0.565701179485179173E+00   -0.714302647996764563E+03
    0.497470861662009725E+02    0.480039426690367748E+02    0.144057477279567809E+02    0.167276786643460973E+02   -0.263297752746879610E+00   -0.714031661961886130E+03
    0.497992994324768006E+02    0.491412271752110996E+02    0.169663843285236240E+02    0.192920728852647052E+02   -0.474052746081192411E+00   -0.714516478886131608E+03
    0.496769061091358992E+02    0.469279420008618331E+02    0.137548090478737688E+02    0.151886969219329817E+02   -0.444546919862588763E+00   -0.714183636973973762E+03
    0.513277805427163969E+02    0.464914661650745131E+02    0.128588442630612363E+02    0.171105533501526139E+02   -0.311240149854772996E+00   -0.714405097993470690E+03
    0.514145846251726653E+02    0.472998030789954669E+02    0.129949386479360900E+02    0.185325019372645343E+02   -0.377956473875129539E+00   -0.714164256372145019E+03
    0.507197906127546503E+02    0.458193932911391073E+02    0.141692734151579405E+02    0.187724727584880426E+02   -0.579539630827033969E+00   -0.714417345620522156E+03
    0.511970385860051636E+02    0.486689796978450602E+02    0.161724081186004227E+02    0.166433120148783154E+02   -0.529650421795114124E+00   -0.713987790583715196E+03
    0.514717851529849497E+02    0.492211481895441807E+02    0.138843112996778775E+02    0.158225193951173200E+02   -0.290357422974694468E+00   -0.714368865134532712E+03
    0.521262387537402390E+02    0.474053049137106086E+02    0.140595743139666567E+02    0.175678368148402626E+02   -0.342870706287045635E+00   -0.714049974007886931E+03
    0.493113402010051516E+02    0.502388907964870555E+02    0.144428560412806224E+02    0.184164778482488813E+02   -0.365599617057261073E+00   -0.714111104982298912E+03
    0.493113402010051516E+02    0.502388907964870555E+02    0.144428560412806224E+02    0.184164778482488813E+02   -0.365599617057261073E+00   -0.714111104982298912E+03
    0.512775473540178552E+02    0.479703788360226895E+02    0.140041971683680941E+02    0.145243313863847856E+02   -0.339432644384489057E+00   -0.714566188135887046E+03
    0.497240628107443854E+02    0.471023712467664666E+02    0.137986734526504637E+02    0.151619359353477403E+02   -0.528153977630823279E+00   -0.714203382054461485E+03
    0.490822868232201017E+02    0.490585449486294749E+02    0.142796184672592918E+02    0.160683738406988255E+02   -0.331467877457463977E+00   -0.713997043021115132E+03
    0.491084004307864461E+02    0.481775605333791361E+02    0.150868032138276824E+02    0.155371968193402079E+02   -0.407781061384735244E+00   -0.713965171985640382E+03
    0.502388325811394338E+02    0.479123886778092469E+02    0.153866542397738257E+02    0.174117605703230183E+02   -0.454944795372469790E+00   -0.713503395289185619E+03
    0.502388325811394338E+02    0.479123886778092469E+02    0.153866542397738257E+02    0.174117605703230183E+02   -0.454944795372469790E+00   -0.713503395289185619E+03
    0.495505998720543914E+02    0.478891882748279727E+02    0.140404362487769081E+02    0.176128705523811782E+02   -0.222385581743546168E+00   -0.714354291505542051E+03
    0.499896873252671412E+02    0.471972603222961311E+02    0.138255452138345092E+02    0.189293418551546750E+02   -0.581589215972135198E+00   -0.714145836463213982E+03
    0.500462539681390126E+02    0.486814214256499724E+02    0.123516770257508206E+02    0.153225972253645786E+02   -0.506169257207564227E+00   -0.714297999180825173E+03
    0.489552924189560770E+02    0.494942516307325207E+02    0.146139649210557110E+02    0.155295174752632406E+02   -0.291434825187310120E+00   -0.714458501815992577E+03
    0.511943811442427830E+02    0.480586444418711949E+02    0.167316910105722023E+02    0.157830537249497915E+02   -0.501517859362713425E+00   -0.714327672959104007E+03
    0.508976838681452080E+02    0.474389145016250495E+02    0.138195863859610366E+02    0.182251285490991677E+02   -0.632142084607659305E+00   -0.714147498112538642E+03
    0.486929172795062186E+02    0.511105849370705130E+02    0.145609361164953377E+02    0.167600262833166909E+02   -0.369258967449468289E+00   -0.714506855444125790E+03
    0.498057129556021039E+02    0.453916396188426177E+02    0.146084433138005902E+02    0.175516836272891048E+02   -0.558489037509627417E+00   -0.714535640278181518E+03
    0.529338630758593922E+02    0.470156007733573915E+02    0.143332648260643047E+02    0.174597261997600093E+02   -0.467887140037650306E+00   -0.714227030383159558E+03
    0.491690306485576230E+02    0.459070006646518607E+02    0.158723204762001053E+02    0.176964858393456019E+02   -0.460892868701598624E+00   -0.714453889767935266E+03
    0.484292076268713743E+02    0.504657102567779248E+02    0.143662560090934033E+02    0.165008116685594572E+02   -0.442376358568596695E+00   -0.714198815501947820E+03
    0.496857072420010297E+02    0.478740148596253334E+02    0.141531240903602935E+02    0.180793649978798179E+02   -0.234550661242738379E+00   -0.714313763600192601E+03
    0.502083595081811893E+02    0.475592517315311625E+02    0.153510474429169967E+02    0.173222056248400982E+02   -0.441209824280313745E+00   -0.713535988196873859E+03
    0.502083595081811893E+02    0.475592517315311625E+02    0.153510474429169967E+02    0.173222056248400982E+02   -0.441209824280313745E+00   -0.713535988196873859E+03
    0.491270040690043004E+02    0.506984495491382177E+02    0.154022740521278170E+02    0.185516341160976310E+02   -0.489274340416083642E+00   -0.714261020380492823E+03
    0.502647696602646192E+02    0.477480886093659365E+02    0.143780909063576523E+02    0.182698791539157988E+02   -0.444136867700276605E+00   -0.713549589091250482E+03
    0.502647696602646192E+02    0.477480886093659365E+02    0.143780909063576523E+02    0.182698791539157988E+02   -0.444136867700276605E+00   -0.713549589091250482E+03
    0.504976980162400366E+02    0.499596326566530422E+02    0.145446511134746732E+02    0.192521563662548303E+02   -0.350510178994980715E+00   -0.714313127253202993E+03
    0.498945563806694850E+02    0.479066029393771942E+02    0.147898508011706440E+02    0.180962737405677991E+02   -0.262050853432455599E+00   -0.714115963516377860E+03
    0.501493030987073780E+02    0.488299822308686089E+02    0.135044978565208549E+02    0.186940542976474049E+02   -0.311797879856351767E+00   -0.714131128122527230E+03
    0.495445250258906356E+02    0.502500184215199965E+02    0.149174291803054491E+02    0.161866377191294184E+02   -0.421473930207020397E+00   -0.713988530856590501E+03
    0.514044720561548161E+02    0.474558099539004843E+02    0.128508827815359457E+02    0.182610623614868786E+02   -0.310022988555979540E+00   -0.714369691498582370E+03
    0.508536960859783562E+02    0.477353447723175179E+02    0.139691608814151333E+02    0.196556312652490988E+02   -0.387454627314131717E+00   -0.714197717692350352E+03
    0.503289814372330113E+02    0.490019445450024307E+02    0.152780809656038379E+02    0.200272019525124385E+02   -0.494952332026148967E+00   -0.714311148825042210E+03
    0.494875958829214255E+02    0.472887323081478712E+02    0.129137145370254594E+02    0.167327214280757310E+02   -0.538145744945417892E+00   -0.713997759270378651E+03
    0.494875958829214255E+02    0.472887323081478712E+02    0.129137145370254594E+02    0.167327214280757310E+02   -0.538145744945417892E+00   -0.713997759270378651E+03
    0.523408401246893504E+02    0.470989493331329356E+02    0.126625834304191116E+02    0.169813963559577168E+02   -0.478630070460736023E+00   -0.714332241181189147E+03
    0.518038302897192011E+02    0.459929275070214771E+02    0.137961563083087100E+02    0.185182994556310412E+02   -0.572467060594276544E+00   -0.714395644509983640E+03
    0.510066293028814641E+02    0.494715390354911904E+02    0.130424763269669874E+02    0.191200646483956653E+02   -0.487501213270313150E+00   -0.714305042002314963E+03
    0.514307391798476488E+02    0.500753147887396324E+02    0.157716693864559865E+02    0.181581390575447941E+02   -0.469199202035865182E+00   -0.714252888402077019E+03
    0.492963602655820239E+02    0.468143728644167538E+02    0.124462533985914003E+02    0.175998012499716943E+02   -0.379071868236269482E+00   -0.714400385885371179E+03
    0.524472064707759955E+02    0.473455538710252029E+02    0.159054540643219458E+02    0.174285493188119958E+02   -0.556282435093946148E+00   -0.714275988630370762E+03
    0.499809499608637680E+02    0.485253889503592859E+02    0.160049708404261288E+02    0.175426539467438332E+02   -0.433786826961135574E+00   -0.713685154471153055E+03
    0.509271797087079108E+02    0.455940765557002692E+02    0.148417614527123316E+02    0.178923027684179274E+02   -0.603443981335900270E+00   -0.714470442598543400E+03
    0.485832062277202965E+02    0.494040718492541089E+02    0.133649770383764537E+02    0.172337224577438128E+02   -0.452932830009971532E+00   -0.713957666383421611E+03
    0.513153937721580746E+02    0.480083173799100109E+02    0.142372073889700452E+02    0.202508507988317632E+02   -0.498967822484743140E+00   -0.714479755994494440E+03
    0.500187738339022872E+02    0.485912691895396733E+02    0.163900914132669051E+02    0.186503445512935890E+02   -0.557228660191473213E+00   -0.714149890301123946E+03
    0.479428330832637073E+02    0.490323859326821321E+02    0.157845143427143597E+02    0.167825498041665426E+02   -0.346664634932057125E+00   -0.714400905361073228E+03
    0.501282212423227520E+02    0.478383501077276492E+02    0.155288797403427328E+02    0.167123234268393688E+02   -0.505863723928232423E+00   -0.713618089795444007E+03
    0.501282212423227520E+02    0.478383501077276492E+02    0.155288797403427328E+02    0.167123234268393688E+02   -0.505863723928232423E+00   -0.713618089795444007E+03
    0.504786080029908248E+02    0.471847738260507015E+02    0.142509910167580660E+02    0.161021418796396141E+02   -0.523146775172036227E+00   -0.713709253954877340E+03
    0.485081945132335477E+02    0.488852984640880095E+02    0.154049165511508175E+02    0.190486481924177298E+02   -0.404949295053132485E+00   -0.714243854830554255E+03
    0.498818823011781092E+02    0.487150011786490325E+02    0.131250622816001545E+02    0.158369697169206560E+02   -0.575960795137491322E+00   -0.714014372868707596E+03
    0.498900319192310633E+02    0.474137018035910955E+02    0.140533540168295001E+02    0.169094080825512698E+02   -0.411866537483364548E+00   -0.713560996194951940E+03
    0.498900319192310633E+02    0.474137018035910955E+02    0.140533540168295001E+02    0.169094080825512698E+02   -0.411866537483364548E+00   -0.713560996194951940E+03
    0.511827273915935734E+02    0.462192416691202936E+02    0.146465640181467993E+02    0.186725852560366334E+02   -0.382940589407111620E+00   -0.714107514684610010E+03
    0.512259517056491234E+02    0.463126624932564539E+02    0.136857419138922616E+02    0.169417865179325133E+02   -0.471269168217388512E+00   -0.713855831566184747E+03
    0.512259517056491234E+02    0.463126624932564539E+02    0.136857419138922616E+02    0.169417865179325133E+02   -0.471269168217388512E+00   -0.713855831566184747E+03
    0.520454863119647371E+02    0.471016463556047995E+02    0.152690933125630934E+02    0.161188302318618319E+02   -0.390435419591130262E+00   -0.714058132554295980E+03
    0.492440124648878452E+02    0.464216841560791238E+02    0.153142904185171087E+02    0.169132537802519103E+02   -0.282419441508013014E+00   -0.714461597662927261E+03
    0.494945934825255449E+02    0.471495873956144749E+02    0.145607527846595062E+02    0.168533247874128342E+02   -0.496867133624947277E+00   -0.713688524713307061E+03
    0.494945934825255449E+02    0.471495873956144749E+02    0.145607527846595062E+02    0.168533247874128342E+02   -0.496867133624947277E+00   -0.713688524713307061E+03
    0.497697198440433510E+02    0.487636600080952576E+02    0.156297497133800505E+02    0.148996553629329220E+02   -0.587649848542949549E+00   -0.714556775665638611E+03
    0.505171612622230555E+02    0.477391188495838321E+02    0.149410493952404781E+02    0.176984465557126995E+02   -0.520889105516067152E+00   -0.713533277179412266E+03
    0.505171612622230555E+02    0.477391188495838321E+02    0.149410493952404781E+02    0.176984465557126995E+02   -0.520889105516067152E+00   -0.713533277179412266E+03
    0.510010509222867938E+02    0.479779390399942827E+02    0.131286293879048408E+02    0.180330859635391612E+02   -0.537863075804166035E+00   -0.713832583052997620E+03
    0.480445419952875454E+02    0.495382833472680204E+02    0.136282296828409457E+02    0.159019263893613125E+02   -0.454514723007064969E+00   -0.714337808735132967E+03
    0.510183188589711563E+02    0.486584022931082814E+02    0.136005296925446508E+02    0.183358838721734223E+02   -0.342776783151233833E+00   -0.713940712728883568E+03
    0.510183188589711563E+02    0.486584022931082814E+02    0.136005296925446508E+02    0.183358838721734223E+02   -0.342776783151233833E+00   -0.713940712728883568E+03
    0.511709257284555292E+02    0.453778792723286131E+02    0.161145622998518476E+02    0.170979393276102627E+02   -0.510528582691221589E+00   -0.714526983309678712E+03
    0.498040412444714775E+02    0.454126794773344500E+02    0.142618172213131267E+02    0.184956463410145986E+02   -0.407558472199220923E+00   -0.714461488481485503E+03
    0.488561217258836393E+02    0.494315471386697425E+02    0.135630344168512984E+02    0.189288712710618903E+02   -0.544266256356410016E+00   -0.714234789149212247E+03
